/****************************************************/
/*  differentiation constants                       */
/****************************************************/

#ifndef _diffconst_h
#define _diffconst_h

#if 0
// twoscale coefficients reference array
double hg[10][10] =  { 
  { 7.07106781186547462e-01 , 0.00000000000000000e+00 , 0.00000000000000000e+00 , 0.00000000000000000e+00 , 0.00000000000000000e+00 , 7.07106781186547462e-01 , 0.00000000000000000e+00 , 0.00000000000000000e+00 , 0.00000000000000000e+00 , 0.00000000000000000e+00 } ,
  { -6.12372435695794470e-01 , 3.53553390593273731e-01 , 0.00000000000000000e+00 , 0.00000000000000000e+00 , 0.00000000000000000e+00 , 6.12372435695794470e-01 , 3.53553390593273731e-01 , 0.00000000000000000e+00 , 0.00000000000000000e+00 , 0.00000000000000000e+00 } ,
  { 0.00000000000000000e+00 , -6.84653196881457649e-01 , 1.76776695296636865e-01 , 0.00000000000000000e+00 , 0.00000000000000000e+00 , 0.00000000000000000e+00 , 6.84653196881457649e-01 , 1.76776695296636865e-01 , 0.00000000000000000e+00 , 0.00000000000000000e+00 } ,
  { 2.33853586673371333e-01 , 4.05046293650491274e-01 , -5.22912516583797227e-01 , 8.83883476483184327e-02 , 0.00000000000000000e+00 , -2.33853586673371333e-01 , 4.05046293650491274e-01 , 5.22912516583797227e-01 , 8.83883476483184327e-02 , 0.00000000000000000e+00 } ,
  { 0.00000000000000000e+00 , 1.53093108923948618e-01 , 5.92927061281571133e-01 , -3.50780380010057014e-01 , 4.41941738241592164e-02 , 0.00000000000000000e+00 , -1.53093108923948618e-01 , 5.92927061281571133e-01 , 3.50780380010057014e-01 , 4.41941738241592164e-02 } ,
  { 1.46647115021353303e-01 , 2.54000254000381009e-01 , 1.63956458945988232e-01 , -5.81987695247377923e-01 , 2.19970672532029926e-01 , -1.46647115021353303e-01 , 2.54000254000381009e-01 , -1.63956458945988232e-01 , -5.81987695247377923e-01 , -2.19970672532029926e-01 } ,
  { 0.00000000000000000e+00 , 7.02439358686270526e-02 , 2.72053593791254378e-01 , 4.29197537639476046e-01 , -4.86664263392287633e-01 , 0.00000000000000000e+00 , -7.02439358686270526e-02 , 2.72053593791254378e-01 , -4.29197537639476046e-01 , -4.86664263392287633e-01 } ,
  { 1.22012412152227842e-01 , 2.11331697001692936e-01 , 2.08908333645301647e-01 , -5.53396284716417136e-02 , -6.27492405354314609e-01 , -1.22012412152227842e-01 , 2.11331697001692936e-01 , -2.08908333645301647e-01 , -5.53396284716417136e-02 , 6.27492405354314609e-01 } ,
  { 0.00000000000000000e+00 , 5.36496922049345057e-02 , 2.07784364438865221e-01 , 4.39024599178919062e-01 , 5.11081959901581784e-01 , 0.00000000000000000e+00 , -5.36496922049345057e-02 , 2.07784364438865221e-01 , -4.39024599178919062e-01 , 5.11081959901581784e-01 } ,
  { 1.84174088668055735e-01 , 3.18998879010767955e-01 , 3.95016566365811783e-01 , 3.87834176035668388e-01 , 2.40553911729705472e-01 , -1.84174088668055735e-01 , 3.18998879010767955e-01 , -3.95016566365811783e-01 , 3.87834176035668388e-01 , -2.40553911729705472e-01 }
};

/* k=5/npt=5 */
double quad_points[5] = { 0.95308992296933193, 0.76923465505284150, 0.50000000000000000, 0.23076534494715845, 0.0469100770306680 };
double quad_weights[5] = { 0.11846344252809465, 0.23931433524968321, 0.28444444444444444, 0.23931433524968321, 0.11846344252809465 };


#else

double h0[9][9] = {
  { 7.07106781186547462e-01, 0.0, 0.0, 0.0, 0.0, 0.0, 0.0, 0.0, 0.0},
  { -6.12372435695794470e-01, 3.53553390593273731e-01, 0.0, 0.0, 0.0, 0.0, 0.0, 0.0, 0.0},
  { 0.0, -6.84653196881457649e-01, 1.76776695296636865e-01, 0.0, 0.0, 0.0, 0.0, 0.0, 0.0},
  { 2.33853586673371333e-01, 4.05046293650491274e-01, -5.22912516583797227e-01, 8.83883476483184327e-02, 0.0, 0.0, 0.0, 0.0, 0.0},
  { 0.0, 1.53093108923948618e-01, 5.92927061281571133e-01, -3.50780380010057014e-01, 4.41941738241592164e-02, 0.0, 0.0, 0.0, 0.0},
  { -1.46575492494482179e-01, -2.53876200144873776e-01, -1.63876382526586178e-01, 5.81703452155821421e-01, -2.19863238741723255e-01, 2.20970869120796082e-02, 0.0, 0.0, 0.0},
  { 0.0, -6.89981317681863104e-02, -2.67228615257610491e-01, -4.21585548851001302e-01, 4.78033079399323602e-01, -1.32121363478810649e-01, 1.10485434560398041e-02, 0.0, 0.0},
  { 1.06977062012727761e-01, 1.85289706650490965e-01, 1.81798066847188994e-01, -5.66069404148024924e-02, -5.34885310063638819e-01, 3.54802775870799780e-01, -7.71422564770761626e-02, 5.52427172801990204e-03, 0.0},
  { 0.0, 3.94511911654768649e-02, 1.52793806371937069e-01, 3.01313449619951434e-01, 2.04994402553155097e-01, -5.28802957971468812e-01, 2.46372609862835601e-01, -4.41077726196727124e-02, 2.76213586400995102e-03}};

double g0[9][9] = {
  { 8.42792584469231471e-02, 1.45975957654299354e-01, 1.61532129411937286e-01, 6.37091310089995394e-02, -2.16718093149230961e-01, -3.99318111254050090e-01, 4.55809781682694426e-01, -1.63206082197822067e-01, 2.48208774732423983e-02},
  { 0.0, 2.55826160045998577e-02, 9.90810457382345772e-02, 2.10543186526815251e-01, 2.53202232631380975e-01, -1.04972100214821631e-02, -4.90701827637742893e-01, 3.59570944408087345e-01, -1.04397954978139834e-01},
  { 6.98295820824746949e-02, 1.20948384038147491e-01, 1.41274481628820670e-01, 9.67842712489446200e-02, -6.48168048065920765e-02, -2.92246884167049470e-01, -2.09939549356038924e-01, 4.95960059392540953e-01, -2.67412021339565542e-01},
  { 0.0, 1.85039393315955744e-02, 7.16654488705020520e-02, 1.57855884003784086e-01, 2.27349818186954933e-01, 1.48804573982203869e-01, -1.84903565406234149e-01, -3.88267619132195818e-01, 4.59163776792766987e-01},
  { 6.67803031919601692e-02, 1.15666878073329080e-01, 1.39376700703139261e-01, 1.17827382371290271e-01, 1.12588060760871606e-02, -1.84242596995609603e-01, -3.15833473518240371e-01, -3.92018502414369710e-02, 5.59904227853391112e-01},
  { 0.0, 1.66416380133660273e-02, 6.44527868793789011e-02, 1.45659749318545001e-01, 2.33765216256414499e-01, 2.47288638357724272e-01, 6.37660677766828110e-02, -3.20321912564716038e-01, -5.01878516690173138e-01},
  { 8.07069192195687957e-02, 1.39788484610650271e-01, 1.73398419299368722e-01, 1.71717133489792978e-01, 1.04029695662908067e-01, -5.79991433603740669e-02, -2.90124027851231980e-01, -4.51983807980708752e-01, -3.34281908854268950e-01},
  { 0.0, 1.48845960620674032e-02, 5.76477926634115512e-02, 1.34034618659144067e-01, 2.38878751987926574e-01, 3.45697430762867186e-01, 4.00168393617256923e-01, 3.39713656770383565e-01, 1.62419266616139757e-01},
  { 1.20131817436616412e-01, 2.08074411405808374e-01, 2.66669288884877065e-01, 3.06281134811372646e-01, 3.21622407413684697e-01, 3.02414084535261696e-01, 2.41431493954213150e-01, 1.46733530264100548e-01, 5.13575304039249891e-02 }};

double quad_points[9]  = { 9.84080119753813043e-01, 9.18015553663317885e-01,
                           8.06685716350295179e-01, 6.62126711701904513e-01,
                           5.00000000000000000e-01, 3.37873288298095542e-01,
                           1.93314283649704793e-01, 8.19844463366821014e-02,
                           1.59198802461869536e-02 };
double quad_weights[9] = { 4.06371941807872061e-02, 9.03240803474286980e-02, 
                           1.30305348201467719e-01, 1.56173538520001431e-01,
                           1.65119677500629891e-01, 1.56173538520001431e-01,
                           1.30305348201467719e-01, 9.03240803474286980e-02,
                           4.06371941807872061e-02 };

double phi_norms[100];

#endif /* k==5 */
#endif /* _DIFFCONST_H */
